Language model created by QuickLM on Tue May  2 14:25:19 EDT 2017
Copyright (c) 1996-2010 Carnegie Mellon University and Alexander I. Rudnicky

The model is in standard ARPA format, designed by Doug Paul while he was at MITRE.

The code that was used to produce this language model is available in Open Source.
Please visit http://www.speech.cs.cmu.edu/tools/ for more information

The (fixed) discount mass is 0.5. The backoffs are computed using the ratio method.
This model based on a corpus of 15 sentences and 18 words

\data\
ngram 1=18
ngram 2=31
ngram 3=17

\1-grams:
-0.7970 </s> -0.3010
-0.7970 <s> -0.2200
-1.9731 ALEXANDER -0.2255
-1.9731 ALL -0.2255
-1.9731 ALLEN -0.2255
-1.9731 ARNOLD -0.2255
-1.6721 BAXTER -0.2255
-1.9731 DOCTOR -0.2917
-1.9731 EVERYBODY -0.2255
-1.9731 EVERYONE -0.2255
-1.9731 FETCH -0.2255
-1.9731 HILARY -0.2255
-1.9731 JACOB -0.2255
-1.9731 JARED -0.2255
-1.9731 LISA -0.2255
-1.9731 PETER -0.2964
-1.9731 PR2 -0.2255
-1.9731 ROBOTS -0.2255

\2-grams:
-1.4771 <s> ALEXANDER 0.0000
-1.4771 <s> ALL 0.0000
-1.4771 <s> ARNOLD 0.0000
-1.4771 <s> BAXTER 0.0000
-1.4771 <s> DOCTOR 0.0000
-1.4771 <s> EVERYBODY 0.0000
-1.4771 <s> EVERYONE 0.0000
-1.4771 <s> FETCH 0.0000
-1.4771 <s> HILARY 0.0000
-1.4771 <s> JACOB 0.0000
-1.4771 <s> JARED 0.0000
-1.4771 <s> LISA 0.0000
-1.4771 <s> PETER 0.0000
-1.4771 <s> PR2 0.0000
-1.4771 <s> ROBOTS 0.0000
-0.3010 ALEXANDER </s> -0.3010
-0.3010 ALL </s> -0.3010
-0.3010 ALLEN </s> -0.3010
-0.3010 ARNOLD </s> -0.3010
-0.3010 BAXTER </s> -0.3010
-0.3010 DOCTOR BAXTER 0.0000
-0.3010 EVERYBODY </s> -0.3010
-0.3010 EVERYONE </s> -0.3010
-0.3010 FETCH </s> -0.3010
-0.3010 HILARY </s> -0.3010
-0.3010 JACOB </s> -0.3010
-0.3010 JARED </s> -0.3010
-0.3010 LISA </s> -0.3010
-0.3010 PETER ALLEN 0.0000
-0.3010 PR2 </s> -0.3010
-0.3010 ROBOTS </s> -0.3010

\3-grams:
-0.3010 <s> ALEXANDER </s>
-0.3010 <s> ALL </s>
-0.3010 <s> ARNOLD </s>
-0.3010 <s> BAXTER </s>
-0.3010 <s> DOCTOR BAXTER
-0.3010 <s> EVERYBODY </s>
-0.3010 <s> EVERYONE </s>
-0.3010 <s> FETCH </s>
-0.3010 <s> HILARY </s>
-0.3010 <s> JACOB </s>
-0.3010 <s> JARED </s>
-0.3010 <s> LISA </s>
-0.3010 <s> PETER ALLEN
-0.3010 <s> PR2 </s>
-0.3010 <s> ROBOTS </s>
-0.3010 DOCTOR BAXTER </s>
-0.3010 PETER ALLEN </s>

\end\
